{
  "version": 1,
  "benchmark_source": "docs/grouping32_benchmark_2026-04-04.tsv",
  "total_datasets": 15,
  "candidate_shapes": [
    {
      "variant": "c3l11",
      "big_groups": [
        3
      ],
      "little_groups": [
        11
      ]
    },
    {
      "variant": "b2l444",
      "big_groups": [
        2
      ],
      "little_groups": [
        4,
        4,
        4
      ]
    },
    {
      "variant": "b2l66",
      "big_groups": [
        2
      ],
      "little_groups": [
        6,
        6
      ]
    },
    {
      "variant": "b22l333",
      "big_groups": [
        2,
        2
      ],
      "little_groups": [
        3,
        3,
        3
      ]
    },
    {
      "variant": "b3l433",
      "big_groups": [
        3
      ],
      "little_groups": [
        4,
        3,
        3
      ]
    },
    {
      "variant": "b3l55",
      "big_groups": [
        3
      ],
      "little_groups": [
        5,
        5
      ]
    },
    {
      "variant": "b4l333",
      "big_groups": [
        4
      ],
      "little_groups": [
        3,
        3,
        3
      ]
    }
  ],
  "feature_mean": [
    14.67371227999644,
    17.32897767146196,
    2.6552653914655164,
    -12.018446268252088,
    5.8,
    6.4,
    0.6980370653167555,
    0.7948882187654219,
    6.77697561870642,
    7.44063200378691,
    12.961673322390862,
    9.669024033070055,
    0.8874268827023853,
    2.483264986488278,
    0.3681567490277749,
    0.15395093023085782,
    0.7817295168161668,
    0.26666666666666666,
    0.2,
    0.2,
    0.13333333333333333,
    0.06666666666666667,
    0.06666666666666667,
    0.06666666666666667,
    0.0,
    0.6,
    0.4,
    0.0
  ],
  "feature_scale": [
    0.9839428057766272,
    1.3415797345509157,
    0.8549045695754981,
    1.2641895333692654,
    9.669195071635146,
    11.3888834688334,
    0.28133383089511255,
    0.21675081829856935,
    2.434235733199044,
    2.0566335627070087,
    28.804669248087713,
    7.559108874422849,
    0.2398979758299341,
    0.40531553325677727,
    0.19334522139986182,
    0.10612934020453221,
    0.16579015405661782,
    0.44221663871405337,
    0.4,
    0.4,
    0.33993463423951903,
    0.2494438257849295,
    0.2494438257849295,
    0.2494438257849295,
    1.0,
    0.48989794855663565,
    0.48989794855663565,
    1.0
  ],
  "feature_group_weights": [
    1.0,
    1.0,
    1.0,
    1.0,
    2.0,
    2.0,
    1.0,
    1.0,
    1.0,
    1.0,
    1.0,
    1.0,
    1.0,
    1.0,
    1.0,
    1.0,
    1.0,
    1.0,
    1.0,
    1.0,
    1.0,
    1.0,
    1.0,
    1.0,
    1.0,
    1.0,
    1.0,
    1.0
  ],
  "label_knn_neighbors": 3,
  "label_distance_power": 0.5,
  "winner_exemplars": [
    {
      "dataset": "amazon-2008.mtx",
      "features": [
        -1.1846696126118006,
        -1.3959982680715761,
        -0.8272219713512492,
        0.3626450201949223,
        -0.5998431055563728,
        -0.5619514869490163,
        0.6452481903994356,
        0.9463022231918,
        -2.4200376378104305,
        -1.167537754957148,
        -0.43046763048869124,
        -1.1362809567577343,
        1.0680940892241009,
        -1.8308621012228465,
        -1.559888575908095,
        -1.3189867599678773,
        -1.789000521578086,
        -0.6030226891555271,
        -0.5,
        -0.5,
        -0.39223227027636803,
        3.7416573867739404,
        -0.2672612419124243,
        -0.2672612419124243,
        0.0,
        0.816496580927726,
        -0.816496580927726,
        0.0
      ],
      "best_variant": "b4l333",
      "scores_by_variant": {
        "b22l333": 1897.95,
        "b2l444": 2505.4,
        "b2l66": 1389.29,
        "b3l433": 2414.93,
        "b3l55": 1473.79,
        "b4l333": 2999.76,
        "c3l11": 1900.43
      }
    },
    {
      "dataset": "ca-hollywood-2009.mtx",
      "features": [
        -0.804274623609703,
        0.38562418010484323,
        1.5308209378279285,
        1.6611958130902087,
        -0.5998431055563728,
        -0.5619514869490163,
        0.9183862570618645,
        0.7982229185959574,
        -0.7908160980606285,
        -1.293147780770467,
        -0.3410862925400964,
        -0.9315231859438302,
        1.1278801630014823,
        0.31425835231459665,
        -0.8249632509887159,
        -1.0734941869619603,
        -0.24912934453384344,
        -0.6030226891555271,
        -0.5,
        -0.5,
        -0.39223227027636803,
        -0.2672612419124243,
        -0.2672612419124243,
        3.7416573867739404,
        0.0,
        0.816496580927726,
        -0.816496580927726,
        0.0
      ],
      "best_variant": "b4l333",
      "scores_by_variant": {
        "b22l333": 6239.07,
        "b2l444": 6163.13,
        "b2l66": 3768.98,
        "b3l433": 6364.83,
        "b3l55": 4151.3,
        "b4l333": 10623.5,
        "c3l11": 6081.3
      }
    },
    {
      "dataset": "dbpedia-link.mtx",
      "features": [
        2.08040900589359,
        1.2193250058019363,
        -0.4809680184666872,
        -1.9444756754286914,
        -0.5998431055563728,
        -0.5619514869490163,
        -1.178158966139599,
        -1.1185810634581927,
        -0.034365068267653495,
        1.6756615290925676,
        -0.3153458648027253,
        2.048746418863396,
        -1.1388849383618909,
        -0.24216124941403347,
        0.363176968954893,
        0.8139764752976624,
        0.807423760241099,
        -0.6030226891555271,
        -0.5,
        -0.5,
        -0.39223227027636803,
        -0.2672612419124243,
        3.7416573867739404,
        -0.2672612419124243,
        0.0,
        0.816496580927726,
        -0.816496580927726,
        0.0
      ],
      "best_variant": "c3l11",
      "scores_by_variant": {
        "b2l444": 4605.05,
        "b2l66": 3754.67,
        "b3l433": 4895.86,
        "b3l55": 4021.69,
        "c3l11": 5049.44
      }
    },
    {
      "dataset": "graph500-scale23-ef16_adj.mtx",
      "features": [
        0.6801475096554364,
        1.521664335265716,
        1.60510053966654,
        0.5560725787198225,
        1.7788450716499329,
        0.8429272304235244,
        1.0733260686156973,
        0.9463022231918,
        0.7024634222119538,
        0.5087465251495522,
        -0.11419193712839946,
        0.00044824192839683895,
        -0.8142623222985488,
        -0.3469730225839871,
        0.6814007175058249,
        0.34696926459448146,
        0.6328361574424729,
        1.6583123951777,
        -0.5,
        -0.5,
        -0.39223227027636803,
        -0.2672612419124243,
        -0.2672612419124243,
        -0.2672612419124243,
        0.0,
        0.816496580927726,
        -0.816496580927726,
        0.0
      ],
      "best_variant": "b22l333",
      "scores_by_variant": {
        "b22l333": 12655.1,
        "b2l444": 12109.5,
        "b2l66": 8826.89,
        "b3l433": 11293.1,
        "b3l55": 10128.1,
        "b4l333": 11864.7,
        "c3l11": 12217.0
      }
    },
    {
      "dataset": "rmat-19-32.txt",
      "features": [
        -1.5284566675840723,
        -0.5766788479665755,
        0.8541927511244314,
        1.7672733845207458,
        1.3651601712662276,
        2.2478059477960652,
        -0.20537021772258207,
        -0.7141772218992652,
        0.18474257586253137,
        -0.10758444252588688,
        -0.19102394135163747,
        -0.2921026079525008,
        -0.5721025070803395,
        -0.0656103554965499,
        0.5595999895392101,
        0.019971724740827722,
        0.7488075834575264,
        1.6583123951777,
        -0.5,
        -0.5,
        -0.39223227027636803,
        -0.2672612419124243,
        -0.2672612419124243,
        -0.2672612419124243,
        0.0,
        -1.224744871391589,
        1.224744871391589,
        0.0
      ],
      "best_variant": "b2l444",
      "scores_by_variant": {
        "b22l333": 8427.83,
        "b2l444": 14126.2,
        "b2l66": 11583.9,
        "b3l433": 8380.49,
        "b3l55": 10117.3,
        "b4l333": 7700.82,
        "c3l11": 10874.5
      }
    },
    {
      "dataset": "rmat-21-32.txt",
      "features": [
        -0.11954049636828826,
        0.4757227848755321,
        0.8841233112474727,
        0.6909264028508384,
        1.5720026214580802,
        2.2478059477960652,
        -0.372607615340311,
        -0.9292558904091739,
        0.5553601996624374,
        0.3340097386810828,
        -0.10800668339410657,
        0.02401283754415425,
        -0.971048978902906,
        1.505898039630069,
        0.7916584069498875,
        0.541702817378779,
        0.8568611085295936,
        1.6583123951777,
        -0.5,
        -0.5,
        -0.39223227027636803,
        -0.2672612419124243,
        -0.2672612419124243,
        -0.2672612419124243,
        0.0,
        -1.224744871391589,
        1.224744871391589,
        0.0
      ],
      "best_variant": "b2l444",
      "scores_by_variant": {
        "b22l333": 12609.9,
        "b2l444": 12810.4,
        "b2l66": 7975.76,
        "b3l433": 11290.2,
        "b3l55": 8822.51,
        "b4l333": 10499.9,
        "c3l11": 12296.5
      }
    },
    {
      "dataset": "rmat-24-16.txt",
      "features": [
        1.993835396041271,
        1.5357637332618053,
        0.11525205417210639,
        -1.473901656012018,
        1.8822662967458592,
        0.8429272304235244,
        -0.9172602973481833,
        -1.6367079152815465,
        1.1723470951834636,
        1.0643747743183356,
        0.09118405290859447,
        0.7823533743906251,
        -1.1848839098730048,
        1.6197799382203601,
        1.284328941234426,
        1.2817270498249327,
        0.9898664167928305,
        1.6583123951777,
        -0.5,
        -0.5,
        -0.39223227027636803,
        -0.2672612419124243,
        -0.2672612419124243,
        -0.2672612419124243,
        0.0,
        -1.224744871391589,
        1.224744871391589,
        0.0
      ],
      "best_variant": "b4l333",
      "scores_by_variant": {
        "b22l333": 11068.1,
        "b2l444": 8882.58,
        "b2l66": 6426.98,
        "b3l433": 9993.81,
        "b3l55": 7726.95,
        "b4l333": 12905.6,
        "c3l11": 9721.35
      }
    },
    {
      "dataset": "soc-flickr-und.mtx",
      "features": [
        -0.32383992499349,
        -0.5732661751280421,
        -0.526891930006146,
        -0.1042584106337518,
        -0.5998431055563728,
        -0.5619514869490163,
        -1.2273198660252342,
        0.8855006142699138,
        0.5005806978371874,
        -0.1841953819774404,
        -0.06984745163749057,
        -0.5339733535400878,
        -0.6011075768206753,
        1.205109091026024,
        0.24156541570606144,
        -0.36901325661128365,
        0.2813006923757651,
        -0.6030226891555271,
        2.0,
        -0.5,
        -0.39223227027636803,
        -0.2672612419124243,
        -0.2672612419124243,
        -0.2672612419124243,
        0.0,
        0.816496580927726,
        -0.816496580927726,
        0.0
      ],
      "best_variant": "b22l333",
      "scores_by_variant": {
        "b22l333": 4990.05,
        "b2l444": 3734.32,
        "b2l66": 2837.97,
        "b3l433": 3869.06,
        "b3l55": 3379.47,
        "b4l333": 4626.1,
        "c3l11": 4071.61
      }
    },
    {
      "dataset": "soc-LiveJournal1.txt",
      "features": [
        0.7320303868189203,
        0.5370900603917601,
        0.0003194601358767835,
        -0.5695374940030297,
        -0.5998431055563728,
        -0.5619514869490163,
        0.678015432855836,
        0.6052668268415806,
        0.1997416539956548,
        -0.26989341526905225,
        -0.36197732049080183,
        -0.8751477909303017,
        1.3883850352598692,
        -0.1843923371565599,
        -0.904810144835776,
        -0.9252295324736981,
        -0.34999555602284543,
        -0.6030226891555271,
        2.0,
        -0.5,
        -0.39223227027636803,
        -0.2672612419124243,
        -0.2672612419124243,
        -0.2672612419124243,
        0.0,
        -1.224744871391589,
        1.224744871391589,
        0.0
      ],
      "best_variant": "b4l333",
      "scores_by_variant": {
        "b22l333": 3509.92,
        "b2l444": 2903.73,
        "b2l66": 1847.93,
        "b3l433": 3111.96,
        "b3l55": 2196.64,
        "b4l333": 4759.05,
        "c3l11": 2792.09
      }
    },
    {
      "dataset": "soc-orkut-dir.mtx",
      "features": [
        0.2685833323708105,
        0.9319516724857215,
        1.1533648021550698,
        0.5709159016559642,
        -0.5998431055563728,
        -0.5619514869490163,
        0.6704819991472839,
        0.9463007215868117,
        -0.0052995835668156605,
        -1.4207330888705196,
        -0.330857092114858,
        -1.1012456456339712,
        1.1181572190656928,
        -1.180816410368951,
        -1.3988565674409963,
        -1.2810143983878148,
        -1.4766012401575122,
        -0.6030226891555271,
        2.0,
        -0.5,
        -0.39223227027636803,
        -0.2672612419124243,
        -0.2672612419124243,
        -0.2672612419124243,
        0.0,
        0.816496580927726,
        -0.816496580927726,
        0.0
      ],
      "best_variant": "b4l333",
      "scores_by_variant": {
        "b22l333": 3126.96,
        "b2l444": 2097.37,
        "b2l66": 1536.13,
        "b3l433": 2409.57,
        "b3l55": 1833.6,
        "b4l333": 3693.66,
        "c3l11": 2436.59
      }
    },
    {
      "dataset": "web-baidu-baike.mtx",
      "features": [
        -0.09836811675830726,
        -0.4729936102337763,
        -0.6290410186093647,
        -0.34882553769813135,
        -0.5998431055563728,
        -0.5619514869490163,
        0.2672773094038164,
        -0.9836717979270173,
        -0.42294499130108787,
        0.940454314803222,
        -0.35327427971156605,
        1.3576699750036203,
        -0.40625041752529667,
        0.5871504989206492,
        0.8702981965488672,
        0.9807633091611659,
        0.721308240611894,
        -0.6030226891555271,
        -0.5,
        2.0,
        -0.39223227027636803,
        -0.2672612419124243,
        -0.2672612419124243,
        -0.2672612419124243,
        0.0,
        0.816496580927726,
        -0.816496580927726,
        0.0
      ],
      "best_variant": "b22l333",
      "scores_by_variant": {
        "b22l333": 6357.95,
        "b2l444": 4504.02,
        "b2l66": 3152.92,
        "b3l433": 4540.13,
        "b3l55": 3424.29,
        "b4l333": 5916.51,
        "c3l11": 4587.21
      }
    },
    {
      "dataset": "web-Google.mtx",
      "features": [
        -0.960902901070954,
        -1.4037473687477764,
        -1.0969242172236555,
        0.006097536396068594,
        -0.5998431055563728,
        -0.5619514869490163,
        0.3869072884872217,
        -0.0700416047511448,
        -0.9694379494867741,
        -0.19684025143782982,
        -0.40912404220790966,
        -0.36799239463202904,
        1.0892104498631272,
        -0.08143261488738512,
        -0.3981820334906417,
        -0.22038341173956116,
        -0.09421287736896658,
        -0.6030226891555271,
        -0.5,
        2.0,
        -0.39223227027636803,
        -0.2672612419124243,
        -0.2672612419124243,
        -0.2672612419124243,
        0.0,
        0.816496580927726,
        -0.816496580927726,
        0.0
      ],
      "best_variant": "b22l333",
      "scores_by_variant": {
        "b22l333": 3037.99,
        "b2l444": 2218.19,
        "b2l66": 2035.99,
        "b3l433": 1884.03,
        "b3l55": 2179.71,
        "b4l333": 2725.63,
        "c3l11": 2446.75
      }
    },
    {
      "dataset": "web-hudong.mtx",
      "features": [
        -0.17566345349871484,
        -0.6068637095505803,
        -0.7501577203850406,
        -0.3705698993347445,
        -0.5998431055563728,
        -0.5619514869490163,
        0.6344743598857893,
        -1.568064480335128,
        -0.2827138325437131,
        0.7623534960163634,
        -0.38340780543060005,
        1.0987113260403532,
        -1.2472697462529378,
        0.4215504257511956,
        1.5003292574824356,
        1.817858161121943,
        0.9574343941756973,
        -0.6030226891555271,
        -0.5,
        2.0,
        -0.39223227027636803,
        -0.2672612419124243,
        -0.2672612419124243,
        -0.2672612419124243,
        0.0,
        0.816496580927726,
        -0.816496580927726,
        0.0
      ],
      "best_variant": "b4l333",
      "scores_by_variant": {
        "b22l333": 5881.33,
        "b2l444": 6607.51,
        "b2l66": 4698.28,
        "b3l433": 5660.18,
        "b3l55": 4879.76,
        "b4l333": 6764.2,
        "c3l11": 6402.61
      }
    },
    {
      "dataset": "wiki-topcats-categories.txt",
      "features": [
        -0.27964491714233447,
        -1.4559842995083332,
        -1.9629845077138568,
        -1.1098097605666444,
        -0.5998431055563728,
        -0.5619514869490163,
        -2.4467260118967333,
        0.9463022231918,
        2.1319627179932086,
        -1.7019369791016823,
        3.7010386361368344,
        -1.153411156082384,
        1.224731948266018,
        -1.750399879352495,
        -1.5960575641394745,
        -1.3683107561201777,
        -2.138257169393963,
        -0.6030226891555271,
        -0.5,
        -0.5,
        2.5495097567963922,
        -0.2672612419124243,
        -0.2672612419124243,
        -0.2672612419124243,
        0.0,
        -1.224744871391589,
        1.224744871391589,
        0.0
      ],
      "best_variant": "b3l433",
      "scores_by_variant": {
        "b22l333": 1667.66,
        "b2l444": 1404.59,
        "b2l66": 1021.78,
        "b3l433": 4060.59,
        "b3l55": 3109.66,
        "c3l11": 1604.72
      }
    },
    {
      "dataset": "wiki-topcats.txt",
      "features": [
        -0.27964491714233447,
        -0.12160949298067317,
        0.13101552742657344,
        0.30625179624846177,
        -0.5998431055563728,
        -0.5619514869490163,
        1.0733260686156973,
        0.9463022231918,
        -0.5215832017093358,
        1.0562687168488998,
        -0.38361234774654634,
        1.0797349177022937,
        -0.08064850756470018,
        0.028901624619924772,
        0.3904002428820921,
        0.7534635001425817,
        0.10135835542834008,
        -0.6030226891555271,
        -0.5,
        -0.5,
        2.5495097567963922,
        -0.2672612419124243,
        -0.2672612419124243,
        -0.2672612419124243,
        0.0,
        -1.224744871391589,
        1.224744871391589,
        0.0
      ],
      "best_variant": "c3l11",
      "scores_by_variant": {
        "b2l444": 4187.27,
        "b3l433": 1115.8,
        "b3l55": 1004.55,
        "c3l11": 4193.43
      }
    }
  ],
  "blend_alpha": 0.8,
  "knn_neighbors": 1,
  "classifier": {
    "Split": {
      "feature_idx": 5,
      "threshold": 1.5453665891097947,
      "left": {
        "Split": {
          "feature_idx": 9,
          "threshold": -0.23336683335344105,
          "left": {
            "Split": {
              "feature_idx": 1,
              "threshold": -1.4259912837899547,
              "left": {
                "Leaf": {
                  "counts": {
                    "b3l433": 1
                  }
                }
              },
              "right": {
                "Leaf": {
                  "counts": {
                    "b4l333": 4
                  }
                }
              }
            }
          },
          "right": {
            "Split": {
              "feature_idx": 7,
              "threshold": -1.3433227718966605,
              "left": {
                "Leaf": {
                  "counts": {
                    "b4l333": 2
                  }
                }
              },
              "right": {
                "Leaf": {
                  "counts": {
                    "b22l333": 4,
                    "c3l11": 2
                  }
                }
              }
            }
          }
        }
      },
      "right": {
        "Leaf": {
          "counts": {
            "b2l444": 2
          }
        }
      }
    }
  },
  "variant_models": [
    {
      "variant": "c3l11",
      "big_groups": [
        3
      ],
      "little_groups": [
        11
      ],
      "regression_weights": [
        8.401220427514584,
        -0.025134746811744095,
        0.027598208273769853,
        0.07223771217083473,
        0.06841332881023188,
        0.02378224773938855,
        0.11259495990882444,
        0.11037872772400001,
        0.02954124990330781,
        0.10623422441088595,
        0.03346725997506727,
        0.09251452086438636,
        -0.026344900929561856,
        -0.15967249283762933,
        0.007781435649175868,
        0.11567547609552634,
        0.06516853971745262,
        0.1481752151474528,
        0.040411748521562936,
        -0.03891365269313019,
        -0.04508601049400596,
        -0.09522659313374413,
        0.037304189582464974,
        0.03628896732242911,
        0.11923556769677518,
        0.0,
        -0.010367684746513837,
        0.01036768474651688,
        0.0
      ],
      "training_examples": 15,
      "exemplar_points": [
        {
          "dataset": "amazon-2008",
          "features": [
            -1.1846696126118006,
            -1.3959982680715761,
            -0.8272219713512492,
            0.3626450201949223,
            -0.5998431055563728,
            -0.5619514869490163,
            0.6452481903994356,
            0.9463022231918,
            -2.4200376378104305,
            -1.167537754957148,
            -0.43046763048869124,
            -1.1362809567577343,
            1.0680940892241009,
            -1.8308621012228465,
            -1.559888575908095,
            -1.3189867599678773,
            -1.789000521578086,
            -0.6030226891555271,
            -0.5,
            -0.5,
            -0.39223227027636803,
            3.7416573867739404,
            -0.2672612419124243,
            -0.2672612419124243,
            0.0,
            0.816496580927726,
            -0.816496580927726,
            0.0
          ],
          "log_throughput": 7.54983545533845
        },
        {
          "dataset": "ca-hollywood-2009",
          "features": [
            -0.804274623609703,
            0.38562418010484323,
            1.5308209378279285,
            1.6611958130902087,
            -0.5998431055563728,
            -0.5619514869490163,
            0.9183862570618645,
            0.7982229185959574,
            -0.7908160980606285,
            -1.293147780770467,
            -0.3410862925400964,
            -0.9315231859438302,
            1.1278801630014823,
            0.31425835231459665,
            -0.8249632509887159,
            -1.0734941869619603,
            -0.24912934453384344,
            -0.6030226891555271,
            -0.5,
            -0.5,
            -0.39223227027636803,
            -0.2672612419124243,
            -0.2672612419124243,
            3.7416573867739404,
            0.0,
            0.816496580927726,
            -0.816496580927726,
            0.0
          ],
          "log_throughput": 8.712973767894349
        },
        {
          "dataset": "dbpedia-link",
          "features": [
            2.08040900589359,
            1.2193250058019363,
            -0.4809680184666872,
            -1.9444756754286914,
            -0.5998431055563728,
            -0.5619514869490163,
            -1.178158966139599,
            -1.1185810634581927,
            -0.034365068267653495,
            1.6756615290925676,
            -0.3153458648027253,
            2.048746418863396,
            -1.1388849383618909,
            -0.24216124941403347,
            0.363176968954893,
            0.8139764752976624,
            0.807423760241099,
            -0.6030226891555271,
            -0.5,
            -0.5,
            -0.39223227027636803,
            -0.2672612419124243,
            3.7416573867739404,
            -0.2672612419124243,
            0.0,
            0.816496580927726,
            -0.816496580927726,
            0.0
          ],
          "log_throughput": 8.527032625031426
        },
        {
          "dataset": "graph500-scale23-ef16_adj",
          "features": [
            0.6801475096554364,
            1.521664335265716,
            1.60510053966654,
            0.5560725787198225,
            1.7788450716499329,
            0.8429272304235244,
            1.0733260686156973,
            0.9463022231918,
            0.7024634222119538,
            0.5087465251495522,
            -0.11419193712839946,
            0.00044824192839683895,
            -0.8142623222985488,
            -0.3469730225839871,
            0.6814007175058249,
            0.34696926459448146,
            0.6328361574424729,
            1.6583123951777,
            -0.5,
            -0.5,
            -0.39223227027636803,
            -0.2672612419124243,
            -0.2672612419124243,
            -0.2672612419124243,
            0.0,
            0.816496580927726,
            -0.816496580927726,
            0.0
          ],
          "log_throughput": 9.41058370340406
        },
        {
          "dataset": "rmat-19-32",
          "features": [
            -1.5284566675840723,
            -0.5766788479665755,
            0.8541927511244314,
            1.7672733845207458,
            1.3651601712662276,
            2.2478059477960652,
            -0.20537021772258207,
            -0.7141772218992652,
            0.18474257586253137,
            -0.10758444252588688,
            -0.19102394135163747,
            -0.2921026079525008,
            -0.5721025070803395,
            -0.0656103554965499,
            0.5595999895392101,
            0.019971724740827722,
            0.7488075834575264,
            1.6583123951777,
            -0.5,
            -0.5,
            -0.39223227027636803,
            -0.2672612419124243,
            -0.2672612419124243,
            -0.2672612419124243,
            0.0,
            -1.224744871391589,
            1.224744871391589,
            0.0
          ],
          "log_throughput": 9.294175877888415
        },
        {
          "dataset": "rmat-21-32",
          "features": [
            -0.11954049636828826,
            0.4757227848755321,
            0.8841233112474727,
            0.6909264028508384,
            1.5720026214580802,
            2.2478059477960652,
            -0.372607615340311,
            -0.9292558904091739,
            0.5553601996624374,
            0.3340097386810828,
            -0.10800668339410657,
            0.02401283754415425,
            -0.971048978902906,
            1.505898039630069,
            0.7916584069498875,
            0.541702817378779,
            0.8568611085295936,
            1.6583123951777,
            -0.5,
            -0.5,
            -0.39223227027636803,
            -0.2672612419124243,
            -0.2672612419124243,
            -0.2672612419124243,
            0.0,
            -1.224744871391589,
            1.224744871391589,
            0.0
          ],
          "log_throughput": 9.417069948022137
        },
        {
          "dataset": "rmat-24-16",
          "features": [
            1.993835396041271,
            1.5357637332618053,
            0.11525205417210639,
            -1.473901656012018,
            1.8822662967458592,
            0.8429272304235244,
            -0.9172602973481833,
            -1.6367079152815465,
            1.1723470951834636,
            1.0643747743183356,
            0.09118405290859447,
            0.7823533743906251,
            -1.1848839098730048,
            1.6197799382203601,
            1.284328941234426,
            1.2817270498249327,
            0.9898664167928305,
            1.6583123951777,
            -0.5,
            -0.5,
            -0.39223227027636803,
            -0.2672612419124243,
            -0.2672612419124243,
            -0.2672612419124243,
            0.0,
            -1.224744871391589,
            1.224744871391589,
            0.0
          ],
          "log_throughput": 9.182079776699204
        },
        {
          "dataset": "soc-flickr-und",
          "features": [
            -0.32383992499349,
            -0.5732661751280421,
            -0.526891930006146,
            -0.1042584106337518,
            -0.5998431055563728,
            -0.5619514869490163,
            -1.2273198660252342,
            0.8855006142699138,
            0.5005806978371874,
            -0.1841953819774404,
            -0.06984745163749057,
            -0.5339733535400878,
            -0.6011075768206753,
            1.205109091026024,
            0.24156541570606144,
            -0.36901325661128365,
            0.2813006923757651,
            -0.6030226891555271,
            2.0,
            -0.5,
            -0.39223227027636803,
            -0.2672612419124243,
            -0.2672612419124243,
            -0.2672612419124243,
            0.0,
            0.816496580927726,
            -0.816496580927726,
            0.0
          ],
          "log_throughput": 8.311793777612108
        },
        {
          "dataset": "soc-LiveJournal1",
          "features": [
            0.7320303868189203,
            0.5370900603917601,
            0.0003194601358767835,
            -0.5695374940030297,
            -0.5998431055563728,
            -0.5619514869490163,
            0.678015432855836,
            0.6052668268415806,
            0.1997416539956548,
            -0.26989341526905225,
            -0.36197732049080183,
            -0.8751477909303017,
            1.3883850352598692,
            -0.1843923371565599,
            -0.904810144835776,
            -0.9252295324736981,
            -0.34999555602284543,
            -0.6030226891555271,
            2.0,
            -0.5,
            -0.39223227027636803,
            -0.2672612419124243,
            -0.2672612419124243,
            -0.2672612419124243,
            0.0,
            -1.224744871391589,
            1.224744871391589,
            0.0
          ],
          "log_throughput": 7.934545698319748
        },
        {
          "dataset": "soc-orkut-dir",
          "features": [
            0.2685833323708105,
            0.9319516724857215,
            1.1533648021550698,
            0.5709159016559642,
            -0.5998431055563728,
            -0.5619514869490163,
            0.6704819991472839,
            0.9463007215868117,
            -0.0052995835668156605,
            -1.4207330888705196,
            -0.330857092114858,
            -1.1012456456339712,
            1.1181572190656928,
            -1.180816410368951,
            -1.3988565674409963,
            -1.2810143983878148,
            -1.4766012401575122,
            -0.6030226891555271,
            2.0,
            -0.5,
            -0.39223227027636803,
            -0.2672612419124243,
            -0.2672612419124243,
            -0.2672612419124243,
            0.0,
            0.816496580927726,
            -0.816496580927726,
            0.0
          ],
          "log_throughput": 7.79835479983243
        },
        {
          "dataset": "web-baidu-baike",
          "features": [
            -0.09836811675830726,
            -0.4729936102337763,
            -0.6290410186093647,
            -0.34882553769813135,
            -0.5998431055563728,
            -0.5619514869490163,
            0.2672773094038164,
            -0.9836717979270173,
            -0.42294499130108787,
            0.940454314803222,
            -0.35327427971156605,
            1.3576699750036203,
            -0.40625041752529667,
            0.5871504989206492,
            0.8702981965488672,
            0.9807633091611659,
            0.721308240611894,
            -0.6030226891555271,
            -0.5,
            2.0,
            -0.39223227027636803,
            -0.2672612419124243,
            -0.2672612419124243,
            -0.2672612419124243,
            0.0,
            0.816496580927726,
            -0.816496580927726,
            0.0
          ],
          "log_throughput": 8.431027275105802
        },
        {
          "dataset": "web-Google",
          "features": [
            -0.960902901070954,
            -1.4037473687477764,
            -1.0969242172236555,
            0.006097536396068594,
            -0.5998431055563728,
            -0.5619514869490163,
            0.3869072884872217,
            -0.0700416047511448,
            -0.9694379494867741,
            -0.19684025143782982,
            -0.40912404220790966,
            -0.36799239463202904,
            1.0892104498631272,
            -0.08143261488738512,
            -0.3981820334906417,
            -0.22038341173956116,
            -0.09421287736896658,
            -0.6030226891555271,
            -0.5,
            2.0,
            -0.39223227027636803,
            -0.2672612419124243,
            -0.2672612419124243,
            -0.2672612419124243,
            0.0,
            0.816496580927726,
            -0.816496580927726,
            0.0
          ],
          "log_throughput": 7.802515892305929
        },
        {
          "dataset": "web-hudong",
          "features": [
            -0.17566345349871484,
            -0.6068637095505803,
            -0.7501577203850406,
            -0.3705698993347445,
            -0.5998431055563728,
            -0.5619514869490163,
            0.6344743598857893,
            -1.568064480335128,
            -0.2827138325437131,
            0.7623534960163634,
            -0.38340780543060005,
            1.0987113260403532,
            -1.2472697462529378,
            0.4215504257511956,
            1.5003292574824356,
            1.817858161121943,
            0.9574343941756973,
            -0.6030226891555271,
            -0.5,
            2.0,
            -0.39223227027636803,
            -0.2672612419124243,
            -0.2672612419124243,
            -0.2672612419124243,
            0.0,
            0.816496580927726,
            -0.816496580927726,
            0.0
          ],
          "log_throughput": 8.764460998714847
        },
        {
          "dataset": "wiki-topcats-categories",
          "features": [
            -0.27964491714233447,
            -1.4559842995083332,
            -1.9629845077138568,
            -1.1098097605666444,
            -0.5998431055563728,
            -0.5619514869490163,
            -2.4467260118967333,
            0.9463022231918,
            2.1319627179932086,
            -1.7019369791016823,
            3.7010386361368344,
            -1.153411156082384,
            1.224731948266018,
            -1.750399879352495,
            -1.5960575641394745,
            -1.3683107561201777,
            -2.138257169393963,
            -0.6030226891555271,
            -0.5,
            -0.5,
            2.5495097567963922,
            -0.2672612419124243,
            -0.2672612419124243,
            -0.2672612419124243,
            0.0,
            -1.224744871391589,
            1.224744871391589,
            0.0
          ],
          "log_throughput": 7.380704565516442
        },
        {
          "dataset": "wiki-topcats",
          "features": [
            -0.27964491714233447,
            -0.12160949298067317,
            0.13101552742657344,
            0.30625179624846177,
            -0.5998431055563728,
            -0.5619514869490163,
            1.0733260686156973,
            0.9463022231918,
            -0.5215832017093358,
            1.0562687168488998,
            -0.38361234774654634,
            1.0797349177022937,
            -0.08064850756470018,
            0.028901624619924772,
            0.3904002428820921,
            0.7534635001425817,
            0.10135835542834008,
            -0.6030226891555271,
            -0.5,
            -0.5,
            2.5495097567963922,
            -0.2672612419124243,
            -0.2672612419124243,
            -0.2672612419124243,
            0.0,
            -1.224744871391589,
            1.224744871391589,
            0.0
          ],
          "log_throughput": 8.341274293784847
        }
      ]
    },
    {
      "variant": "b2l444",
      "big_groups": [
        2
      ],
      "little_groups": [
        4,
        4,
        4
      ],
      "regression_weights": [
        8.40018516467354,
        -0.06343393167809502,
        -0.004027081936081249,
        0.06668897468906282,
        0.0944700268483768,
        0.004020618718434118,
        0.11787629239929963,
        0.14231649882077996,
        0.031329237642199144,
        0.11994244185887608,
        0.06785359592933705,
        0.1220324727371282,
        0.001013482962541405,
        -0.18198306117683444,
        -0.0746670667476204,
        0.14846193113761413,
        0.04708650302932487,
        0.20736272223326976,
        0.0372306957348152,
        -0.019725622421334122,
        -0.06802190247492301,
        -0.16966704166837906,
        0.11915689676495117,
        0.030338997847818114,
        0.1564274143549283,
        0.0,
        -0.051463798509461964,
        0.05146379850946527,
        0.0
      ],
      "training_examples": 15,
      "exemplar_points": [
        {
          "dataset": "amazon-2008",
          "features": [
            -1.1846696126118006,
            -1.3959982680715761,
            -0.8272219713512492,
            0.3626450201949223,
            -0.5998431055563728,
            -0.5619514869490163,
            0.6452481903994356,
            0.9463022231918,
            -2.4200376378104305,
            -1.167537754957148,
            -0.43046763048869124,
            -1.1362809567577343,
            1.0680940892241009,
            -1.8308621012228465,
            -1.559888575908095,
            -1.3189867599678773,
            -1.789000521578086,
            -0.6030226891555271,
            -0.5,
            -0.5,
            -0.39223227027636803,
            3.7416573867739404,
            -0.2672612419124243,
            -0.2672612419124243,
            0.0,
            0.816496580927726,
            -0.816496580927726,
            0.0
          ],
          "log_throughput": 7.8262036814100915
        },
        {
          "dataset": "ca-hollywood-2009",
          "features": [
            -0.804274623609703,
            0.38562418010484323,
            1.5308209378279285,
            1.6611958130902087,
            -0.5998431055563728,
            -0.5619514869490163,
            0.9183862570618645,
            0.7982229185959574,
            -0.7908160980606285,
            -1.293147780770467,
            -0.3410862925400964,
            -0.9315231859438302,
            1.1278801630014823,
            0.31425835231459665,
            -0.8249632509887159,
            -1.0734941869619603,
            -0.24912934453384344,
            -0.6030226891555271,
            -0.5,
            -0.5,
            -0.39223227027636803,
            -0.2672612419124243,
            -0.2672612419124243,
            3.7416573867739404,
            0.0,
            0.816496580927726,
            -0.816496580927726,
            0.0
          ],
          "log_throughput": 8.726340044363011
        },
        {
          "dataset": "dbpedia-link",
          "features": [
            2.08040900589359,
            1.2193250058019363,
            -0.4809680184666872,
            -1.9444756754286914,
            -0.5998431055563728,
            -0.5619514869490163,
            -1.178158966139599,
            -1.1185810634581927,
            -0.034365068267653495,
            1.6756615290925676,
            -0.3153458648027253,
            2.048746418863396,
            -1.1388849383618909,
            -0.24216124941403347,
            0.363176968954893,
            0.8139764752976624,
            0.807423760241099,
            -0.6030226891555271,
            -0.5,
            -0.5,
            -0.39223227027636803,
            -0.2672612419124243,
            3.7416573867739404,
            -0.2672612419124243,
            0.0,
            0.816496580927726,
            -0.816496580927726,
            0.0
          ],
          "log_throughput": 8.434908806393763
        },
        {
          "dataset": "graph500-scale23-ef16_adj",
          "features": [
            0.6801475096554364,
            1.521664335265716,
            1.60510053966654,
            0.5560725787198225,
            1.7788450716499329,
            0.8429272304235244,
            1.0733260686156973,
            0.9463022231918,
            0.7024634222119538,
            0.5087465251495522,
            -0.11419193712839946,
            0.00044824192839683895,
            -0.8142623222985488,
            -0.3469730225839871,
            0.6814007175058249,
            0.34696926459448146,
            0.6328361574424729,
            1.6583123951777,
            -0.5,
            -0.5,
            -0.39223227027636803,
            -0.2672612419124243,
            -0.2672612419124243,
            -0.2672612419124243,
            0.0,
            0.816496580927726,
            -0.816496580927726,
            0.0
          ],
          "log_throughput": 9.40174554750318
        },
        {
          "dataset": "rmat-19-32",
          "features": [
            -1.5284566675840723,
            -0.5766788479665755,
            0.8541927511244314,
            1.7672733845207458,
            1.3651601712662276,
            2.2478059477960652,
            -0.20537021772258207,
            -0.7141772218992652,
            0.18474257586253137,
            -0.10758444252588688,
            -0.19102394135163747,
            -0.2921026079525008,
            -0.5721025070803395,
            -0.0656103554965499,
            0.5595999895392101,
            0.019971724740827722,
            0.7488075834575264,
            1.6583123951777,
            -0.5,
            -0.5,
            -0.39223227027636803,
            -0.2672612419124243,
            -0.2672612419124243,
            -0.2672612419124243,
            0.0,
            -1.224744871391589,
            1.224744871391589,
            0.0
          ],
          "log_throughput": 9.555786508158318
        },
        {
          "dataset": "rmat-21-32",
          "features": [
            -0.11954049636828826,
            0.4757227848755321,
            0.8841233112474727,
            0.6909264028508384,
            1.5720026214580802,
            2.2478059477960652,
            -0.372607615340311,
            -0.9292558904091739,
            0.5553601996624374,
            0.3340097386810828,
            -0.10800668339410657,
            0.02401283754415425,
            -0.971048978902906,
            1.505898039630069,
            0.7916584069498875,
            0.541702817378779,
            0.8568611085295936,
            1.6583123951777,
            -0.5,
            -0.5,
            -0.39223227027636803,
            -0.2672612419124243,
            -0.2672612419124243,
            -0.2672612419124243,
            0.0,
            -1.224744871391589,
            1.224744871391589,
            0.0
          ],
          "log_throughput": 9.458012620008267
        },
        {
          "dataset": "rmat-24-16",
          "features": [
            1.993835396041271,
            1.5357637332618053,
            0.11525205417210639,
            -1.473901656012018,
            1.8822662967458592,
            0.8429272304235244,
            -0.9172602973481833,
            -1.6367079152815465,
            1.1723470951834636,
            1.0643747743183356,
            0.09118405290859447,
            0.7823533743906251,
            -1.1848839098730048,
            1.6197799382203601,
            1.284328941234426,
            1.2817270498249327,
            0.9898664167928305,
            1.6583123951777,
            -0.5,
            -0.5,
            -0.39223227027636803,
            -0.2672612419124243,
            -0.2672612419124243,
            -0.2672612419124243,
            0.0,
            -1.224744871391589,
            1.224744871391589,
            0.0
          ],
          "log_throughput": 9.091847334328026
        },
        {
          "dataset": "soc-flickr-und",
          "features": [
            -0.32383992499349,
            -0.5732661751280421,
            -0.526891930006146,
            -0.1042584106337518,
            -0.5998431055563728,
            -0.5619514869490163,
            -1.2273198660252342,
            0.8855006142699138,
            0.5005806978371874,
            -0.1841953819774404,
            -0.06984745163749057,
            -0.5339733535400878,
            -0.6011075768206753,
            1.205109091026024,
            0.24156541570606144,
            -0.36901325661128365,
            0.2813006923757651,
            -0.6030226891555271,
            2.0,
            -0.5,
            -0.39223227027636803,
            -0.2672612419124243,
            -0.2672612419124243,
            -0.2672612419124243,
            0.0,
            0.816496580927726,
            -0.816496580927726,
            0.0
          ],
          "log_throughput": 8.225321019412045
        },
        {
          "dataset": "soc-LiveJournal1",
          "features": [
            0.7320303868189203,
            0.5370900603917601,
            0.0003194601358767835,
            -0.5695374940030297,
            -0.5998431055563728,
            -0.5619514869490163,
            0.678015432855836,
            0.6052668268415806,
            0.1997416539956548,
            -0.26989341526905225,
            -0.36197732049080183,
            -0.8751477909303017,
            1.3883850352598692,
            -0.1843923371565599,
            -0.904810144835776,
            -0.9252295324736981,
            -0.34999555602284543,
            -0.6030226891555271,
            2.0,
            -0.5,
            -0.39223227027636803,
            -0.2672612419124243,
            -0.2672612419124243,
            -0.2672612419124243,
            0.0,
            -1.224744871391589,
            1.224744871391589,
            0.0
          ],
          "log_throughput": 7.973751396415612
        },
        {
          "dataset": "soc-orkut-dir",
          "features": [
            0.2685833323708105,
            0.9319516724857215,
            1.1533648021550698,
            0.5709159016559642,
            -0.5998431055563728,
            -0.5619514869490163,
            0.6704819991472839,
            0.9463007215868117,
            -0.0052995835668156605,
            -1.4207330888705196,
            -0.330857092114858,
            -1.1012456456339712,
            1.1181572190656928,
            -1.180816410368951,
            -1.3988565674409963,
            -1.2810143983878148,
            -1.4766012401575122,
            -0.6030226891555271,
            2.0,
            -0.5,
            -0.39223227027636803,
            -0.2672612419124243,
            -0.2672612419124243,
            -0.2672612419124243,
            0.0,
            0.816496580927726,
            -0.816496580927726,
            0.0
          ],
          "log_throughput": 7.648439457874724
        },
        {
          "dataset": "web-baidu-baike",
          "features": [
            -0.09836811675830726,
            -0.4729936102337763,
            -0.6290410186093647,
            -0.34882553769813135,
            -0.5998431055563728,
            -0.5619514869490163,
            0.2672773094038164,
            -0.9836717979270173,
            -0.42294499130108787,
            0.940454314803222,
            -0.35327427971156605,
            1.3576699750036203,
            -0.40625041752529667,
            0.5871504989206492,
            0.8702981965488672,
            0.9807633091611659,
            0.721308240611894,
            -0.6030226891555271,
            -0.5,
            2.0,
            -0.39223227027636803,
            -0.2672612419124243,
            -0.2672612419124243,
            -0.2672612419124243,
            0.0,
            0.816496580927726,
            -0.816496580927726,
            0.0
          ],
          "log_throughput": 8.412725610307003
        },
        {
          "dataset": "web-Google",
          "features": [
            -0.960902901070954,
            -1.4037473687477764,
            -1.0969242172236555,
            0.006097536396068594,
            -0.5998431055563728,
            -0.5619514869490163,
            0.3869072884872217,
            -0.0700416047511448,
            -0.9694379494867741,
            -0.19684025143782982,
            -0.40912404220790966,
            -0.36799239463202904,
            1.0892104498631272,
            -0.08143261488738512,
            -0.3981820334906417,
            -0.22038341173956116,
            -0.09421287736896658,
            -0.6030226891555271,
            -0.5,
            2.0,
            -0.39223227027636803,
            -0.2672612419124243,
            -0.2672612419124243,
            -0.2672612419124243,
            0.0,
            0.816496580927726,
            -0.816496580927726,
            0.0
          ],
          "log_throughput": 7.7044468270007105
        },
        {
          "dataset": "web-hudong",
          "features": [
            -0.17566345349871484,
            -0.6068637095505803,
            -0.7501577203850406,
            -0.3705698993347445,
            -0.5998431055563728,
            -0.5619514869490163,
            0.6344743598857893,
            -1.568064480335128,
            -0.2827138325437131,
            0.7623534960163634,
            -0.38340780543060005,
            1.0987113260403532,
            -1.2472697462529378,
            0.4215504257511956,
            1.5003292574824356,
            1.817858161121943,
            0.9574343941756973,
            -0.6030226891555271,
            -0.5,
            2.0,
            -0.39223227027636803,
            -0.2672612419124243,
            -0.2672612419124243,
            -0.2672612419124243,
            0.0,
            0.816496580927726,
            -0.816496580927726,
            0.0
          ],
          "log_throughput": 8.795962159909006
        },
        {
          "dataset": "wiki-topcats-categories",
          "features": [
            -0.27964491714233447,
            -1.4559842995083332,
            -1.9629845077138568,
            -1.1098097605666444,
            -0.5998431055563728,
            -0.5619514869490163,
            -2.4467260118967333,
            0.9463022231918,
            2.1319627179932086,
            -1.7019369791016823,
            3.7010386361368344,
            -1.153411156082384,
            1.224731948266018,
            -1.750399879352495,
            -1.5960575641394745,
            -1.3683107561201777,
            -2.138257169393963,
            -0.6030226891555271,
            -0.5,
            -0.5,
            2.5495097567963922,
            -0.2672612419124243,
            -0.2672612419124243,
            -0.2672612419124243,
            0.0,
            -1.224744871391589,
            1.224744871391589,
            0.0
          ],
          "log_throughput": 7.2475007242349605
        },
        {
          "dataset": "wiki-topcats",
          "features": [
            -0.27964491714233447,
            -0.12160949298067317,
            0.13101552742657344,
            0.30625179624846177,
            -0.5998431055563728,
            -0.5619514869490163,
            1.0733260686156973,
            0.9463022231918,
            -0.5215832017093358,
            1.0562687168488998,
            -0.38361234774654634,
            1.0797349177022937,
            -0.08064850756470018,
            0.028901624619924772,
            0.3904002428820921,
            0.7534635001425817,
            0.10135835542834008,
            -0.6030226891555271,
            -0.5,
            -0.5,
            2.5495097567963922,
            -0.2672612419124243,
            -0.2672612419124243,
            -0.2672612419124243,
            0.0,
            -1.224744871391589,
            1.224744871391589,
            0.0
          ],
          "log_throughput": 8.339804249251735
        }
      ]
    },
    {
      "variant": "b2l66",
      "big_groups": [
        2
      ],
      "little_groups": [
        6,
        6
      ],
      "regression_weights": [
        7.765613168492514,
        -0.024337838217377658,
        -0.04774327834062831,
        -0.046910936364083444,
        -0.012780902460774846,
        0.023913518282041923,
        0.32290947972128664,
        0.07945926501784854,
        -0.1688087407549382,
        0.49782078858238543,
        -0.012273401183645826,
        0.5328683390111303,
        -0.15954238127215836,
        -0.13188426044600401,
        -0.337239555483919,
        0.13338986934976363,
        -0.2037392087944534,
        0.4535796604759704,
        0.11863803324680063,
        0.09279716336467472,
        0.23525849762858703,
        -1.0715765884097637,
        0.25363435873009027,
        0.13482562279225827,
        0.3354706204444212,
        0.0,
        0.05642404862613089,
        -0.05642404862613087,
        0.0
      ],
      "training_examples": 14,
      "exemplar_points": [
        {
          "dataset": "amazon-2008",
          "features": [
            -1.1846696126118006,
            -1.3959982680715761,
            -0.8272219713512492,
            0.3626450201949223,
            -0.5998431055563728,
            -0.5619514869490163,
            0.6452481903994356,
            0.9463022231918,
            -2.4200376378104305,
            -1.167537754957148,
            -0.43046763048869124,
            -1.1362809567577343,
            1.0680940892241009,
            -1.8308621012228465,
            -1.559888575908095,
            -1.3189867599678773,
            -1.789000521578086,
            -0.6030226891555271,
            -0.5,
            -0.5,
            -0.39223227027636803,
            3.7416573867739404,
            -0.2672612419124243,
            -0.2672612419124243,
            0.0,
            0.816496580927726,
            -0.816496580927726,
            0.0
          ],
          "log_throughput": 7.23654810425948
        },
        {
          "dataset": "ca-hollywood-2009",
          "features": [
            -0.804274623609703,
            0.38562418010484323,
            1.5308209378279285,
            1.6611958130902087,
            -0.5998431055563728,
            -0.5619514869490163,
            0.9183862570618645,
            0.7982229185959574,
            -0.7908160980606285,
            -1.293147780770467,
            -0.3410862925400964,
            -0.9315231859438302,
            1.1278801630014823,
            0.31425835231459665,
            -0.8249632509887159,
            -1.0734941869619603,
            -0.24912934453384344,
            -0.6030226891555271,
            -0.5,
            -0.5,
            -0.39223227027636803,
            -0.2672612419124243,
            -0.2672612419124243,
            3.7416573867739404,
            0.0,
            0.816496580927726,
            -0.816496580927726,
            0.0
          ],
          "log_throughput": 8.234559686805722
        },
        {
          "dataset": "dbpedia-link",
          "features": [
            2.08040900589359,
            1.2193250058019363,
            -0.4809680184666872,
            -1.9444756754286914,
            -0.5998431055563728,
            -0.5619514869490163,
            -1.178158966139599,
            -1.1185810634581927,
            -0.034365068267653495,
            1.6756615290925676,
            -0.3153458648027253,
            2.048746418863396,
            -1.1388849383618909,
            -0.24216124941403347,
            0.363176968954893,
            0.8139764752976624,
            0.807423760241099,
            -0.6030226891555271,
            -0.5,
            -0.5,
            -0.39223227027636803,
            -0.2672612419124243,
            3.7416573867739404,
            -0.2672612419124243,
            0.0,
            0.816496580927726,
            -0.816496580927726,
            0.0
          ],
          "log_throughput": 8.230755677513411
        },
        {
          "dataset": "graph500-scale23-ef16_adj",
          "features": [
            0.6801475096554364,
            1.521664335265716,
            1.60510053966654,
            0.5560725787198225,
            1.7788450716499329,
            0.8429272304235244,
            1.0733260686156973,
            0.9463022231918,
            0.7024634222119538,
            0.5087465251495522,
            -0.11419193712839946,
            0.00044824192839683895,
            -0.8142623222985488,
            -0.3469730225839871,
            0.6814007175058249,
            0.34696926459448146,
            0.6328361574424729,
            1.6583123951777,
            -0.5,
            -0.5,
            -0.39223227027636803,
            -0.2672612419124243,
            -0.2672612419124243,
            -0.2672612419124243,
            0.0,
            0.816496580927726,
            -0.816496580927726,
            0.0
          ],
          "log_throughput": 9.085558023177546
        },
        {
          "dataset": "rmat-19-32",
          "features": [
            -1.5284566675840723,
            -0.5766788479665755,
            0.8541927511244314,
            1.7672733845207458,
            1.3651601712662276,
            2.2478059477960652,
            -0.20537021772258207,
            -0.7141772218992652,
            0.18474257586253137,
            -0.10758444252588688,
            -0.19102394135163747,
            -0.2921026079525008,
            -0.5721025070803395,
            -0.0656103554965499,
            0.5595999895392101,
            0.019971724740827722,
            0.7488075834575264,
            1.6583123951777,
            -0.5,
            -0.5,
            -0.39223227027636803,
            -0.2672612419124243,
            -0.2672612419124243,
            -0.2672612419124243,
            0.0,
            -1.224744871391589,
            1.224744871391589,
            0.0
          ],
          "log_throughput": 9.357371481991551
        },
        {
          "dataset": "rmat-21-32",
          "features": [
            -0.11954049636828826,
            0.4757227848755321,
            0.8841233112474727,
            0.6909264028508384,
            1.5720026214580802,
            2.2478059477960652,
            -0.372607615340311,
            -0.9292558904091739,
            0.5553601996624374,
            0.3340097386810828,
            -0.10800668339410657,
            0.02401283754415425,
            -0.971048978902906,
            1.505898039630069,
            0.7916584069498875,
            0.541702817378779,
            0.8568611085295936,
            1.6583123951777,
            -0.5,
            -0.5,
            -0.39223227027636803,
            -0.2672612419124243,
            -0.2672612419124243,
            -0.2672612419124243,
            0.0,
            -1.224744871391589,
            1.224744871391589,
            0.0
          ],
          "log_throughput": 8.98416222091814
        },
        {
          "dataset": "rmat-24-16",
          "features": [
            1.993835396041271,
            1.5357637332618053,
            0.11525205417210639,
            -1.473901656012018,
            1.8822662967458592,
            0.8429272304235244,
            -0.9172602973481833,
            -1.6367079152815465,
            1.1723470951834636,
            1.0643747743183356,
            0.09118405290859447,
            0.7823533743906251,
            -1.1848839098730048,
            1.6197799382203601,
            1.284328941234426,
            1.2817270498249327,
            0.9898664167928305,
            1.6583123951777,
            -0.5,
            -0.5,
            -0.39223227027636803,
            -0.2672612419124243,
            -0.2672612419124243,
            -0.2672612419124243,
            0.0,
            -1.224744871391589,
            1.224744871391589,
            0.0
          ],
          "log_throughput": 8.768260033494654
        },
        {
          "dataset": "soc-flickr-und",
          "features": [
            -0.32383992499349,
            -0.5732661751280421,
            -0.526891930006146,
            -0.1042584106337518,
            -0.5998431055563728,
            -0.5619514869490163,
            -1.2273198660252342,
            0.8855006142699138,
            0.5005806978371874,
            -0.1841953819774404,
            -0.06984745163749057,
            -0.5339733535400878,
            -0.6011075768206753,
            1.205109091026024,
            0.24156541570606144,
            -0.36901325661128365,
            0.2813006923757651,
            -0.6030226891555271,
            2.0,
            -0.5,
            -0.39223227027636803,
            -0.2672612419124243,
            -0.2672612419124243,
            -0.2672612419124243,
            0.0,
            0.816496580927726,
            -0.816496580927726,
            0.0
          ],
          "log_throughput": 7.950844286839592
        },
        {
          "dataset": "soc-LiveJournal1",
          "features": [
            0.7320303868189203,
            0.5370900603917601,
            0.0003194601358767835,
            -0.5695374940030297,
            -0.5998431055563728,
            -0.5619514869490163,
            0.678015432855836,
            0.6052668268415806,
            0.1997416539956548,
            -0.26989341526905225,
            -0.36197732049080183,
            -0.8751477909303017,
            1.3883850352598692,
            -0.1843923371565599,
            -0.904810144835776,
            -0.9252295324736981,
            -0.34999555602284543,
            -0.6030226891555271,
            2.0,
            -0.5,
            -0.39223227027636803,
            -0.2672612419124243,
            -0.2672612419124243,
            -0.2672612419124243,
            0.0,
            -1.224744871391589,
            1.224744871391589,
            0.0
          ],
          "log_throughput": 7.521821372696332
        },
        {
          "dataset": "soc-orkut-dir",
          "features": [
            0.2685833323708105,
            0.9319516724857215,
            1.1533648021550698,
            0.5709159016559642,
            -0.5998431055563728,
            -0.5619514869490163,
            0.6704819991472839,
            0.9463007215868117,
            -0.0052995835668156605,
            -1.4207330888705196,
            -0.330857092114858,
            -1.1012456456339712,
            1.1181572190656928,
            -1.180816410368951,
            -1.3988565674409963,
            -1.2810143983878148,
            -1.4766012401575122,
            -0.6030226891555271,
            2.0,
            -0.5,
            -0.39223227027636803,
            -0.2672612419124243,
            -0.2672612419124243,
            -0.2672612419124243,
            0.0,
            0.816496580927726,
            -0.816496580927726,
            0.0
          ],
          "log_throughput": 7.3370215455429095
        },
        {
          "dataset": "web-baidu-baike",
          "features": [
            -0.09836811675830726,
            -0.4729936102337763,
            -0.6290410186093647,
            -0.34882553769813135,
            -0.5998431055563728,
            -0.5619514869490163,
            0.2672773094038164,
            -0.9836717979270173,
            -0.42294499130108787,
            0.940454314803222,
            -0.35327427971156605,
            1.3576699750036203,
            -0.40625041752529667,
            0.5871504989206492,
            0.8702981965488672,
            0.9807633091611659,
            0.721308240611894,
            -0.6030226891555271,
            -0.5,
            2.0,
            -0.39223227027636803,
            -0.2672612419124243,
            -0.2672612419124243,
            -0.2672612419124243,
            0.0,
            0.816496580927726,
            -0.816496580927726,
            0.0
          ],
          "log_throughput": 8.056084286562212
        },
        {
          "dataset": "web-Google",
          "features": [
            -0.960902901070954,
            -1.4037473687477764,
            -1.0969242172236555,
            0.006097536396068594,
            -0.5998431055563728,
            -0.5619514869490163,
            0.3869072884872217,
            -0.0700416047511448,
            -0.9694379494867741,
            -0.19684025143782982,
            -0.40912404220790966,
            -0.36799239463202904,
            1.0892104498631272,
            -0.08143261488738512,
            -0.3981820334906417,
            -0.22038341173956116,
            -0.09421287736896658,
            -0.6030226891555271,
            -0.5,
            2.0,
            -0.39223227027636803,
            -0.2672612419124243,
            -0.2672612419124243,
            -0.2672612419124243,
            0.0,
            0.816496580927726,
            -0.816496580927726,
            0.0
          ],
          "log_throughput": 7.618737466066996
        },
        {
          "dataset": "web-hudong",
          "features": [
            -0.17566345349871484,
            -0.6068637095505803,
            -0.7501577203850406,
            -0.3705698993347445,
            -0.5998431055563728,
            -0.5619514869490163,
            0.6344743598857893,
            -1.568064480335128,
            -0.2827138325437131,
            0.7623534960163634,
            -0.38340780543060005,
            1.0987113260403532,
            -1.2472697462529378,
            0.4215504257511956,
            1.5003292574824356,
            1.817858161121943,
            0.9574343941756973,
            -0.6030226891555271,
            -0.5,
            2.0,
            -0.39223227027636803,
            -0.2672612419124243,
            -0.2672612419124243,
            -0.2672612419124243,
            0.0,
            0.816496580927726,
            -0.816496580927726,
            0.0
          ],
          "log_throughput": 8.454951763272573
        },
        {
          "dataset": "wiki-topcats-categories",
          "features": [
            -0.27964491714233447,
            -1.4559842995083332,
            -1.9629845077138568,
            -1.1098097605666444,
            -0.5998431055563728,
            -0.5619514869490163,
            -2.4467260118967333,
            0.9463022231918,
            2.1319627179932086,
            -1.7019369791016823,
            3.7010386361368344,
            -1.153411156082384,
            1.224731948266018,
            -1.750399879352495,
            -1.5960575641394745,
            -1.3683107561201777,
            -2.138257169393963,
            -0.6030226891555271,
            -0.5,
            -0.5,
            2.5495097567963922,
            -0.2672612419124243,
            -0.2672612419124243,
            -0.2672612419124243,
            0.0,
            -1.224744871391589,
            1.224744871391589,
            0.0
          ],
          "log_throughput": 6.929301483403122
        }
      ]
    },
    {
      "variant": "b22l333",
      "big_groups": [
        2,
        2
      ],
      "little_groups": [
        3,
        3,
        3
      ],
      "regression_weights": [
        7.475923111490125,
        -0.06211674422867113,
        0.04282004243917156,
        0.13868895896778993,
        0.14213433405132653,
        0.2652249251496311,
        0.04406895932738923,
        0.2546351880630937,
        -0.02669923588486114,
        0.695903098275747,
        -0.16827109567190918,
        0.785605381424657,
        0.003203118781942532,
        0.07734751760183203,
        0.2529164259324422,
        0.31353629340365624,
        -0.22700262686557116,
        0.08409835639004389,
        0.2446135846172487,
        0.3746691202452336,
        0.7624869178168475,
        -0.9179143728213144,
        0.6848930785166251,
        -1.9980244952186865,
        0.30687790443359103,
        0.0,
        -0.005304159223143632,
        0.005304159223145431,
        0.0
      ],
      "training_examples": 13,
      "exemplar_points": [
        {
          "dataset": "amazon-2008",
          "features": [
            -1.1846696126118006,
            -1.3959982680715761,
            -0.8272219713512492,
            0.3626450201949223,
            -0.5998431055563728,
            -0.5619514869490163,
            0.6452481903994356,
            0.9463022231918,
            -2.4200376378104305,
            -1.167537754957148,
            -0.43046763048869124,
            -1.1362809567577343,
            1.0680940892241009,
            -1.8308621012228465,
            -1.559888575908095,
            -1.3189867599678773,
            -1.789000521578086,
            -0.6030226891555271,
            -0.5,
            -0.5,
            -0.39223227027636803,
            3.7416573867739404,
            -0.2672612419124243,
            -0.2672612419124243,
            0.0,
            0.816496580927726,
            -0.816496580927726,
            0.0
          ],
          "log_throughput": 7.548529635303383
        },
        {
          "dataset": "ca-hollywood-2009",
          "features": [
            -0.804274623609703,
            0.38562418010484323,
            1.5308209378279285,
            1.6611958130902087,
            -0.5998431055563728,
            -0.5619514869490163,
            0.9183862570618645,
            0.7982229185959574,
            -0.7908160980606285,
            -1.293147780770467,
            -0.3410862925400964,
            -0.9315231859438302,
            1.1278801630014823,
            0.31425835231459665,
            -0.8249632509887159,
            -1.0734941869619603,
            -0.24912934453384344,
            -0.6030226891555271,
            -0.5,
            -0.5,
            -0.39223227027636803,
            -0.2672612419124243,
            -0.2672612419124243,
            3.7416573867739404,
            0.0,
            0.816496580927726,
            -0.816496580927726,
            0.0
          ],
          "log_throughput": 8.7385864117946
        },
        {
          "dataset": "graph500-scale23-ef16_adj",
          "features": [
            0.6801475096554364,
            1.521664335265716,
            1.60510053966654,
            0.5560725787198225,
            1.7788450716499329,
            0.8429272304235244,
            1.0733260686156973,
            0.9463022231918,
            0.7024634222119538,
            0.5087465251495522,
            -0.11419193712839946,
            0.00044824192839683895,
            -0.8142623222985488,
            -0.3469730225839871,
            0.6814007175058249,
            0.34696926459448146,
            0.6328361574424729,
            1.6583123951777,
            -0.5,
            -0.5,
            -0.39223227027636803,
            -0.2672612419124243,
            -0.2672612419124243,
            -0.2672612419124243,
            0.0,
            0.816496580927726,
            -0.816496580927726,
            0.0
          ],
          "log_throughput": 9.445815574963017
        },
        {
          "dataset": "rmat-19-32",
          "features": [
            -1.5284566675840723,
            -0.5766788479665755,
            0.8541927511244314,
            1.7672733845207458,
            1.3651601712662276,
            2.2478059477960652,
            -0.20537021772258207,
            -0.7141772218992652,
            0.18474257586253137,
            -0.10758444252588688,
            -0.19102394135163747,
            -0.2921026079525008,
            -0.5721025070803395,
            -0.0656103554965499,
            0.5595999895392101,
            0.019971724740827722,
            0.7488075834575264,
            1.6583123951777,
            -0.5,
            -0.5,
            -0.39223227027636803,
            -0.2672612419124243,
            -0.2672612419124243,
            -0.2672612419124243,
            0.0,
            -1.224744871391589,
            1.224744871391589,
            0.0
          ],
          "log_throughput": 9.039294603861604
        },
        {
          "dataset": "rmat-21-32",
          "features": [
            -0.11954049636828826,
            0.4757227848755321,
            0.8841233112474727,
            0.6909264028508384,
            1.5720026214580802,
            2.2478059477960652,
            -0.372607615340311,
            -0.9292558904091739,
            0.5553601996624374,
            0.3340097386810828,
            -0.10800668339410657,
            0.02401283754415425,
            -0.971048978902906,
            1.505898039630069,
            0.7916584069498875,
            0.541702817378779,
            0.8568611085295936,
            1.6583123951777,
            -0.5,
            -0.5,
            -0.39223227027636803,
            -0.2672612419124243,
            -0.2672612419124243,
            -0.2672612419124243,
            0.0,
            -1.224744871391589,
            1.224744871391589,
            0.0
          ],
          "log_throughput": 9.442237498713405
        },
        {
          "dataset": "rmat-24-16",
          "features": [
            1.993835396041271,
            1.5357637332618053,
            0.11525205417210639,
            -1.473901656012018,
            1.8822662967458592,
            0.8429272304235244,
            -0.9172602973481833,
            -1.6367079152815465,
            1.1723470951834636,
            1.0643747743183356,
            0.09118405290859447,
            0.7823533743906251,
            -1.1848839098730048,
            1.6197799382203601,
            1.284328941234426,
            1.2817270498249327,
            0.9898664167928305,
            1.6583123951777,
            -0.5,
            -0.5,
            -0.39223227027636803,
            -0.2672612419124243,
            -0.2672612419124243,
            -0.2672612419124243,
            0.0,
            -1.224744871391589,
            1.224744871391589,
            0.0
          ],
          "log_throughput": 9.311822375922018
        },
        {
          "dataset": "soc-flickr-und",
          "features": [
            -0.32383992499349,
            -0.5732661751280421,
            -0.526891930006146,
            -0.1042584106337518,
            -0.5998431055563728,
            -0.5619514869490163,
            -1.2273198660252342,
            0.8855006142699138,
            0.5005806978371874,
            -0.1841953819774404,
            -0.06984745163749057,
            -0.5339733535400878,
            -0.6011075768206753,
            1.205109091026024,
            0.24156541570606144,
            -0.36901325661128365,
            0.2813006923757651,
            -0.6030226891555271,
            2.0,
            -0.5,
            -0.39223227027636803,
            -0.2672612419124243,
            -0.2672612419124243,
            -0.2672612419124243,
            0.0,
            0.816496580927726,
            -0.816496580927726,
            0.0
          ],
          "log_throughput": 8.515201208735444
        },
        {
          "dataset": "soc-LiveJournal1",
          "features": [
            0.7320303868189203,
            0.5370900603917601,
            0.0003194601358767835,
            -0.5695374940030297,
            -0.5998431055563728,
            -0.5619514869490163,
            0.678015432855836,
            0.6052668268415806,
            0.1997416539956548,
            -0.26989341526905225,
            -0.36197732049080183,
            -0.8751477909303017,
            1.3883850352598692,
            -0.1843923371565599,
            -0.904810144835776,
            -0.9252295324736981,
            -0.34999555602284543,
            -0.6030226891555271,
            2.0,
            -0.5,
            -0.39223227027636803,
            -0.2672612419124243,
            -0.2672612419124243,
            -0.2672612419124243,
            0.0,
            -1.224744871391589,
            1.224744871391589,
            0.0
          ],
          "log_throughput": 8.163348524177378
        },
        {
          "dataset": "soc-orkut-dir",
          "features": [
            0.2685833323708105,
            0.9319516724857215,
            1.1533648021550698,
            0.5709159016559642,
            -0.5998431055563728,
            -0.5619514869490163,
            0.6704819991472839,
            0.9463007215868117,
            -0.0052995835668156605,
            -1.4207330888705196,
            -0.330857092114858,
            -1.1012456456339712,
            1.1181572190656928,
            -1.180816410368951,
            -1.3988565674409963,
            -1.2810143983878148,
            -1.4766012401575122,
            -0.6030226891555271,
            2.0,
            -0.5,
            -0.39223227027636803,
            -0.2672612419124243,
            -0.2672612419124243,
            -0.2672612419124243,
            0.0,
            0.816496580927726,
            -0.816496580927726,
            0.0
          ],
          "log_throughput": 8.047816565562785
        },
        {
          "dataset": "web-baidu-baike",
          "features": [
            -0.09836811675830726,
            -0.4729936102337763,
            -0.6290410186093647,
            -0.34882553769813135,
            -0.5998431055563728,
            -0.5619514869490163,
            0.2672773094038164,
            -0.9836717979270173,
            -0.42294499130108787,
            0.940454314803222,
            -0.35327427971156605,
            1.3576699750036203,
            -0.40625041752529667,
            0.5871504989206492,
            0.8702981965488672,
            0.9807633091611659,
            0.721308240611894,
            -0.6030226891555271,
            -0.5,
            2.0,
            -0.39223227027636803,
            -0.2672612419124243,
            -0.2672612419124243,
            -0.2672612419124243,
            0.0,
            0.816496580927726,
            -0.816496580927726,
            0.0
          ],
          "log_throughput": 8.757461277331615
        },
        {
          "dataset": "web-Google",
          "features": [
            -0.960902901070954,
            -1.4037473687477764,
            -1.0969242172236555,
            0.006097536396068594,
            -0.5998431055563728,
            -0.5619514869490163,
            0.3869072884872217,
            -0.0700416047511448,
            -0.9694379494867741,
            -0.19684025143782982,
            -0.40912404220790966,
            -0.36799239463202904,
            1.0892104498631272,
            -0.08143261488738512,
            -0.3981820334906417,
            -0.22038341173956116,
            -0.09421287736896658,
            -0.6030226891555271,
            -0.5,
            2.0,
            -0.39223227027636803,
            -0.2672612419124243,
            -0.2672612419124243,
            -0.2672612419124243,
            0.0,
            0.816496580927726,
            -0.816496580927726,
            0.0
          ],
          "log_throughput": 8.018951391511065
        },
        {
          "dataset": "web-hudong",
          "features": [
            -0.17566345349871484,
            -0.6068637095505803,
            -0.7501577203850406,
            -0.3705698993347445,
            -0.5998431055563728,
            -0.5619514869490163,
            0.6344743598857893,
            -1.568064480335128,
            -0.2827138325437131,
            0.7623534960163634,
            -0.38340780543060005,
            1.0987113260403532,
            -1.2472697462529378,
            0.4215504257511956,
            1.5003292574824356,
            1.817858161121943,
            0.9574343941756973,
            -0.6030226891555271,
            -0.5,
            2.0,
            -0.39223227027636803,
            -0.2672612419124243,
            -0.2672612419124243,
            -0.2672612419124243,
            0.0,
            0.816496580927726,
            -0.816496580927726,
            0.0
          ],
          "log_throughput": 8.679538205791655
        },
        {
          "dataset": "wiki-topcats-categories",
          "features": [
            -0.27964491714233447,
            -1.4559842995083332,
            -1.9629845077138568,
            -1.1098097605666444,
            -0.5998431055563728,
            -0.5619514869490163,
            -2.4467260118967333,
            0.9463022231918,
            2.1319627179932086,
            -1.7019369791016823,
            3.7010386361368344,
            -1.153411156082384,
            1.224731948266018,
            -1.750399879352495,
            -1.5960575641394745,
            -1.3683107561201777,
            -2.138257169393963,
            -0.6030226891555271,
            -0.5,
            -0.5,
            2.5495097567963922,
            -0.2672612419124243,
            -0.2672612419124243,
            -0.2672612419124243,
            0.0,
            -1.224744871391589,
            1.224744871391589,
            0.0
          ],
          "log_throughput": 7.419176725210666
        }
      ]
    },
    {
      "variant": "b3l433",
      "big_groups": [
        3
      ],
      "little_groups": [
        4,
        3,
        3
      ],
      "regression_weights": [
        8.3424909444997,
        0.032272583218880525,
        0.06813144782818081,
        0.06977316034186984,
        0.022065219705959305,
        -0.08567357638207583,
        0.25199656984957813,
        0.1418640164750993,
        0.022974090387686337,
        0.33372984045714243,
        0.03181848151904832,
        0.4643840018232447,
        0.019905483130288993,
        -0.18346255454563576,
        -0.043832049163137037,
        0.08385895933245432,
        -0.060802248970779724,
        0.19321652081706625,
        -0.03391220477771583,
        -0.021411809221969308,
        0.08322998959706569,
        -0.4119858438296013,
        0.28434451195996274,
        0.007690579690745696,
        0.2303972667456223,
        0.0,
        -0.017088640690987637,
        0.017088640690989542,
        0.0
      ],
      "training_examples": 15,
      "exemplar_points": [
        {
          "dataset": "amazon-2008",
          "features": [
            -1.1846696126118006,
            -1.3959982680715761,
            -0.8272219713512492,
            0.3626450201949223,
            -0.5998431055563728,
            -0.5619514869490163,
            0.6452481903994356,
            0.9463022231918,
            -2.4200376378104305,
            -1.167537754957148,
            -0.43046763048869124,
            -1.1362809567577343,
            1.0680940892241009,
            -1.8308621012228465,
            -1.559888575908095,
            -1.3189867599678773,
            -1.789000521578086,
            -0.6030226891555271,
            -0.5,
            -0.5,
            -0.39223227027636803,
            3.7416573867739404,
            -0.2672612419124243,
            -0.2672612419124243,
            0.0,
            0.816496580927726,
            -0.816496580927726,
            0.0
          ],
          "log_throughput": 7.789425580159339
        },
        {
          "dataset": "ca-hollywood-2009",
          "features": [
            -0.804274623609703,
            0.38562418010484323,
            1.5308209378279285,
            1.6611958130902087,
            -0.5998431055563728,
            -0.5619514869490163,
            0.9183862570618645,
            0.7982229185959574,
            -0.7908160980606285,
            -1.293147780770467,
            -0.3410862925400964,
            -0.9315231859438302,
            1.1278801630014823,
            0.31425835231459665,
            -0.8249632509887159,
            -1.0734941869619603,
            -0.24912934453384344,
            -0.6030226891555271,
            -0.5,
            -0.5,
            -0.39223227027636803,
            -0.2672612419124243,
            -0.2672612419124243,
            3.7416573867739404,
            0.0,
            0.816496580927726,
            -0.816496580927726,
            0.0
          ],
          "log_throughput": 8.758542802072377
        },
        {
          "dataset": "dbpedia-link",
          "features": [
            2.08040900589359,
            1.2193250058019363,
            -0.4809680184666872,
            -1.9444756754286914,
            -0.5998431055563728,
            -0.5619514869490163,
            -1.178158966139599,
            -1.1185810634581927,
            -0.034365068267653495,
            1.6756615290925676,
            -0.3153458648027253,
            2.048746418863396,
            -1.1388849383618909,
            -0.24216124941403347,
            0.363176968954893,
            0.8139764752976624,
            0.807423760241099,
            -0.6030226891555271,
            -0.5,
            -0.5,
            -0.39223227027636803,
            -0.2672612419124243,
            3.7416573867739404,
            -0.2672612419124243,
            0.0,
            0.816496580927726,
            -0.816496580927726,
            0.0
          ],
          "log_throughput": 8.496145229012082
        },
        {
          "dataset": "graph500-scale23-ef16_adj",
          "features": [
            0.6801475096554364,
            1.521664335265716,
            1.60510053966654,
            0.5560725787198225,
            1.7788450716499329,
            0.8429272304235244,
            1.0733260686156973,
            0.9463022231918,
            0.7024634222119538,
            0.5087465251495522,
            -0.11419193712839946,
            0.00044824192839683895,
            -0.8142623222985488,
            -0.3469730225839871,
            0.6814007175058249,
            0.34696926459448146,
            0.6328361574424729,
            1.6583123951777,
            -0.5,
            -0.5,
            -0.39223227027636803,
            -0.2672612419124243,
            -0.2672612419124243,
            -0.2672612419124243,
            0.0,
            0.816496580927726,
            -0.816496580927726,
            0.0
          ],
          "log_throughput": 9.331947198727411
        },
        {
          "dataset": "rmat-19-32",
          "features": [
            -1.5284566675840723,
            -0.5766788479665755,
            0.8541927511244314,
            1.7672733845207458,
            1.3651601712662276,
            2.2478059477960652,
            -0.20537021772258207,
            -0.7141772218992652,
            0.18474257586253137,
            -0.10758444252588688,
            -0.19102394135163747,
            -0.2921026079525008,
            -0.5721025070803395,
            -0.0656103554965499,
            0.5595999895392101,
            0.019971724740827722,
            0.7488075834575264,
            1.6583123951777,
            -0.5,
            -0.5,
            -0.39223227027636803,
            -0.2672612419124243,
            -0.2672612419124243,
            -0.2672612419124243,
            0.0,
            -1.224744871391589,
            1.224744871391589,
            0.0
          ],
          "log_throughput": 9.033661664320375
        },
        {
          "dataset": "rmat-21-32",
          "features": [
            -0.11954049636828826,
            0.4757227848755321,
            0.8841233112474727,
            0.6909264028508384,
            1.5720026214580802,
            2.2478059477960652,
            -0.372607615340311,
            -0.9292558904091739,
            0.5553601996624374,
            0.3340097386810828,
            -0.10800668339410657,
            0.02401283754415425,
            -0.971048978902906,
            1.505898039630069,
            0.7916584069498875,
            0.541702817378779,
            0.8568611085295936,
            1.6583123951777,
            -0.5,
            -0.5,
            -0.39223227027636803,
            -0.2672612419124243,
            -0.2672612419124243,
            -0.2672612419124243,
            0.0,
            -1.224744871391589,
            1.224744871391589,
            0.0
          ],
          "log_throughput": 9.331690371778654
        },
        {
          "dataset": "rmat-24-16",
          "features": [
            1.993835396041271,
            1.5357637332618053,
            0.11525205417210639,
            -1.473901656012018,
            1.8822662967458592,
            0.8429272304235244,
            -0.9172602973481833,
            -1.6367079152815465,
            1.1723470951834636,
            1.0643747743183356,
            0.09118405290859447,
            0.7823533743906251,
            -1.1848839098730048,
            1.6197799382203601,
            1.284328941234426,
            1.2817270498249327,
            0.9898664167928305,
            1.6583123951777,
            -0.5,
            -0.5,
            -0.39223227027636803,
            -0.2672612419124243,
            -0.2672612419124243,
            -0.2672612419124243,
            0.0,
            -1.224744871391589,
            1.224744871391589,
            0.0
          ],
          "log_throughput": 9.209721180316587
        },
        {
          "dataset": "soc-flickr-und",
          "features": [
            -0.32383992499349,
            -0.5732661751280421,
            -0.526891930006146,
            -0.1042584106337518,
            -0.5998431055563728,
            -0.5619514869490163,
            -1.2273198660252342,
            0.8855006142699138,
            0.5005806978371874,
            -0.1841953819774404,
            -0.06984745163749057,
            -0.5339733535400878,
            -0.6011075768206753,
            1.205109091026024,
            0.24156541570606144,
            -0.36901325661128365,
            0.2813006923757651,
            -0.6030226891555271,
            2.0,
            -0.5,
            -0.39223227027636803,
            -0.2672612419124243,
            -0.2672612419124243,
            -0.2672612419124243,
            0.0,
            0.816496580927726,
            -0.816496580927726,
            0.0
          ],
          "log_throughput": 8.260766862463441
        },
        {
          "dataset": "soc-LiveJournal1",
          "features": [
            0.7320303868189203,
            0.5370900603917601,
            0.0003194601358767835,
            -0.5695374940030297,
            -0.5998431055563728,
            -0.5619514869490163,
            0.678015432855836,
            0.6052668268415806,
            0.1997416539956548,
            -0.26989341526905225,
            -0.36197732049080183,
            -0.8751477909303017,
            1.3883850352598692,
            -0.1843923371565599,
            -0.904810144835776,
            -0.9252295324736981,
            -0.34999555602284543,
            -0.6030226891555271,
            2.0,
            -0.5,
            -0.39223227027636803,
            -0.2672612419124243,
            -0.2672612419124243,
            -0.2672612419124243,
            0.0,
            -1.224744871391589,
            1.224744871391589,
            0.0
          ],
          "log_throughput": 8.043008031745238
        },
        {
          "dataset": "soc-orkut-dir",
          "features": [
            0.2685833323708105,
            0.9319516724857215,
            1.1533648021550698,
            0.5709159016559642,
            -0.5998431055563728,
            -0.5619514869490163,
            0.6704819991472839,
            0.9463007215868117,
            -0.0052995835668156605,
            -1.4207330888705196,
            -0.330857092114858,
            -1.1012456456339712,
            1.1181572190656928,
            -1.180816410368951,
            -1.3988565674409963,
            -1.2810143983878148,
            -1.4766012401575122,
            -0.6030226891555271,
            2.0,
            -0.5,
            -0.39223227027636803,
            -0.2672612419124243,
            -0.2672612419124243,
            -0.2672612419124243,
            0.0,
            0.816496580927726,
            -0.816496580927726,
            0.0
          ],
          "log_throughput": 7.787203587328867
        },
        {
          "dataset": "web-baidu-baike",
          "features": [
            -0.09836811675830726,
            -0.4729936102337763,
            -0.6290410186093647,
            -0.34882553769813135,
            -0.5998431055563728,
            -0.5619514869490163,
            0.2672773094038164,
            -0.9836717979270173,
            -0.42294499130108787,
            0.940454314803222,
            -0.35327427971156605,
            1.3576699750036203,
            -0.40625041752529667,
            0.5871504989206492,
            0.8702981965488672,
            0.9807633091611659,
            0.721308240611894,
            -0.6030226891555271,
            -0.5,
            2.0,
            -0.39223227027636803,
            -0.2672612419124243,
            -0.2672612419124243,
            -0.2672612419124243,
            0.0,
            0.816496580927726,
            -0.816496580927726,
            0.0
          ],
          "log_throughput": 8.420710924986672
        },
        {
          "dataset": "web-Google",
          "features": [
            -0.960902901070954,
            -1.4037473687477764,
            -1.0969242172236555,
            0.006097536396068594,
            -0.5998431055563728,
            -0.5619514869490163,
            0.3869072884872217,
            -0.0700416047511448,
            -0.9694379494867741,
            -0.19684025143782982,
            -0.40912404220790966,
            -0.36799239463202904,
            1.0892104498631272,
            -0.08143261488738512,
            -0.3981820334906417,
            -0.22038341173956116,
            -0.09421287736896658,
            -0.6030226891555271,
            -0.5,
            2.0,
            -0.39223227027636803,
            -0.2672612419124243,
            -0.2672612419124243,
            -0.2672612419124243,
            0.0,
            0.816496580927726,
            -0.816496580927726,
            0.0
          ],
          "log_throughput": 7.541168378576408
        },
        {
          "dataset": "web-hudong",
          "features": [
            -0.17566345349871484,
            -0.6068637095505803,
            -0.7501577203850406,
            -0.3705698993347445,
            -0.5998431055563728,
            -0.5619514869490163,
            0.6344743598857893,
            -1.568064480335128,
            -0.2827138325437131,
            0.7623534960163634,
            -0.38340780543060005,
            1.0987113260403532,
            -1.2472697462529378,
            0.4215504257511956,
            1.5003292574824356,
            1.817858161121943,
            0.9574343941756973,
            -0.6030226891555271,
            -0.5,
            2.0,
            -0.39223227027636803,
            -0.2672612419124243,
            -0.2672612419124243,
            -0.2672612419124243,
            0.0,
            0.816496580927726,
            -0.816496580927726,
            0.0
          ],
          "log_throughput": 8.641210972811693
        },
        {
          "dataset": "wiki-topcats-categories",
          "features": [
            -0.27964491714233447,
            -1.4559842995083332,
            -1.9629845077138568,
            -1.1098097605666444,
            -0.5998431055563728,
            -0.5619514869490163,
            -2.4467260118967333,
            0.9463022231918,
            2.1319627179932086,
            -1.7019369791016823,
            3.7010386361368344,
            -1.153411156082384,
            1.224731948266018,
            -1.750399879352495,
            -1.5960575641394745,
            -1.3683107561201777,
            -2.138257169393963,
            -0.6030226891555271,
            -0.5,
            -0.5,
            2.5495097567963922,
            -0.2672612419124243,
            -0.2672612419124243,
            -0.2672612419124243,
            0.0,
            -1.224744871391589,
            1.224744871391589,
            0.0
          ],
          "log_throughput": 8.309083562234866
        },
        {
          "dataset": "wiki-topcats",
          "features": [
            -0.27964491714233447,
            -0.12160949298067317,
            0.13101552742657344,
            0.30625179624846177,
            -0.5998431055563728,
            -0.5619514869490163,
            1.0733260686156973,
            0.9463022231918,
            -0.5215832017093358,
            1.0562687168488998,
            -0.38361234774654634,
            1.0797349177022937,
            -0.08064850756470018,
            0.028901624619924772,
            0.3904002428820921,
            0.7534635001425817,
            0.10135835542834008,
            -0.6030226891555271,
            -0.5,
            -0.5,
            2.5495097567963922,
            -0.2672612419124243,
            -0.2672612419124243,
            -0.2672612419124243,
            0.0,
            -1.224744871391589,
            1.224744871391589,
            0.0
          ],
          "log_throughput": 7.017326915411428
        }
      ]
    },
    {
      "variant": "b3l55",
      "big_groups": [
        3
      ],
      "little_groups": [
        5,
        5
      ],
      "regression_weights": [
        8.146757325279431,
        -0.032884595900670985,
        -0.025460069404583015,
        -0.0021056754870483097,
        0.02417069694340752,
        0.046128286281600116,
        0.14538018862743513,
        0.07090467861951327,
        0.0034077355084424755,
        0.27541689253132684,
        0.01584655844799171,
        0.28047757739473717,
        -0.08178514998649448,
        -0.14525126203443942,
        -0.15738040706530299,
        0.12858837682566177,
        -0.01727557165098788,
        0.24055813374685775,
        0.08328020204868845,
        -0.028772076262556928,
        0.03370780765014147,
        -0.33703320990134855,
        0.062419846851162475,
        0.06023016118368798,
        0.1810940398267415,
        0.0,
        0.0047568685055453626,
        -0.0047568685055384315,
        0.0
      ],
      "training_examples": 15,
      "exemplar_points": [
        {
          "dataset": "amazon-2008",
          "features": [
            -1.1846696126118006,
            -1.3959982680715761,
            -0.8272219713512492,
            0.3626450201949223,
            -0.5998431055563728,
            -0.5619514869490163,
            0.6452481903994356,
            0.9463022231918,
            -2.4200376378104305,
            -1.167537754957148,
            -0.43046763048869124,
            -1.1362809567577343,
            1.0680940892241009,
            -1.8308621012228465,
            -1.559888575908095,
            -1.3189867599678773,
            -1.789000521578086,
            -0.6030226891555271,
            -0.5,
            -0.5,
            -0.39223227027636803,
            3.7416573867739404,
            -0.2672612419124243,
            -0.2672612419124243,
            0.0,
            0.816496580927726,
            -0.816496580927726,
            0.0
          ],
          "log_throughput": 7.295592593128715
        },
        {
          "dataset": "ca-hollywood-2009",
          "features": [
            -0.804274623609703,
            0.38562418010484323,
            1.5308209378279285,
            1.6611958130902087,
            -0.5998431055563728,
            -0.5619514869490163,
            0.9183862570618645,
            0.7982229185959574,
            -0.7908160980606285,
            -1.293147780770467,
            -0.3410862925400964,
            -0.9315231859438302,
            1.1278801630014823,
            0.31425835231459665,
            -0.8249632509887159,
            -1.0734941869619603,
            -0.24912934453384344,
            -0.6030226891555271,
            -0.5,
            -0.5,
            -0.39223227027636803,
            -0.2672612419124243,
            -0.2672612419124243,
            3.7416573867739404,
            0.0,
            0.816496580927726,
            -0.816496580927726,
            0.0
          ],
          "log_throughput": 8.33117681718331
        },
        {
          "dataset": "dbpedia-link",
          "features": [
